{"l1.weight": [[0.5118107199668884, -0.2710806429386139, 0.06456790119409561, 0.7024734020233154, 0.558665931224823, 0.06894504278898239, 0.12201002985239029, 0.2595297396183014, 0.15800358355045319, 0.8438009023666382, 0.21788978576660156, -1.1422878503799438, 0.025457894429564476, 0.39275166392326355, 0.40139591693878174, 1.0256445407867432, 0.004185548052191734, 0.37617477774620056, 0.4942862093448639, -0.381088525056839, 0.017182685434818268, 0.07892404496669769, 0.19182880222797394, -0.16888074576854706, 0.06492628902196884, 0.8045075535774231, 0.43132179975509644, -0.7558602690696716, 0.4412589371204376, -0.5449797511100769, -0.16666272282600403, -0.4932423233985901, 0.13865318894386292, -0.012721884064376354, 0.7694827914237976, -0.010414156131446362, 0.6637186408042908, -0.022461919113993645, 0.114250548183918, 0.44765567779541016, -0.15575115382671356, -0.6895058155059814, -0.5162641406059265, 0.36588966846466064, 0.32208943367004395, 0.07514100521802902, 0.781853973865509, 0.42526975274086, 0.5488362312316895, -0.7265679240226746, -0.5015766620635986, -0.15497753024101257, -0.06246088817715645, -0.19072668254375458, 0.3459741771221161, 0.9681750535964966, 0.2525090277194977, 0.532501757144928, 1.2928742170333862, 0.7674098014831543, 0.09999602288007736, 0.15400908887386322, 0.7699841260910034, 0.22012561559677124, 0.06375011056661606, -0.30446672439575195, 0.2368406355381012, 0.3059983551502228, 0.07872678339481354, -1.2881807088851929, 0.20555713772773743, 0.21150845289230347, 1.0104570388793945, 0.37297695875167847, 0.14579890668392181, -0.07497447729110718, 1.4905176162719727, 0.14082001149654388, 0.06124822795391083, 0.7378355264663696, 0.24599303305149078, 0.3565550744533539, 0.7707486152648926, 0.7562798857688904, 0.15686488151550293, 0.7040162682533264, 0.33286064863204956, 0.49307334423065186, -0.29309511184692383, 0.6710159182548523, 0.3171151280403137, 0.28572458028793335, 0.24012218415737152, -0.1933150738477707, 0.29497677087783813, 0.19086548686027527, 0.09872955828905106, -0.15525683760643005, 0.4095493257045746, -0.09933212399482727, 0.17937816679477692, 0.5657463073730469, 0.30409538745880127, -0.6136752963066101, -0.03831745311617851, 0.18182705342769623, -0.14453603327274323, -0.13238853216171265, -0.09999880939722061, 1.1162598133087158, -0.10591688752174377, 0.1599414199590683, 0.948110818862915, 0.5701820254325867, -0.11228945851325989, 0.5713314414024353, 0.43279874324798584, 0.6082944869995117, 0.20536483824253082, -0.017943760380148888, 0.04926396533846855, -0.47393712401390076, 0.167664036154747, -0.028112152591347694, -0.09480186551809311, 0.1195293590426445, 0.6254966259002686, 0.3509318232536316, -0.36405497789382935, -0.2950759828090668, -0.6756367087364197, 0.37920117378234863, 0.2081597000360489, 0.9541834592819214, 0.3730333745479584, -0.4126167297363281, -0.37656012177467346, -0.37619876861572266, 0.8178257346153259, 0.1400892734527588, 0.2996867895126343, -0.6818363666534424, 0.319478303194046, -0.2412053644657135, 0.7455421686172485, 0.5568857192993164, -0.10925423353910446, 0.18273623287677765, 0.30188480019569397, -0.5163554549217224, -0.7096378207206726, 0.40439572930336, 0.5645865201950073, -0.4357861280441284, -0.18130092322826385, -0.5550596714019775, 0.2936038672924042, 0.4475966691970825, 0.04554925113916397, -0.3072025179862976, -0.3024563491344452, -0.0035984558053314686, 0.053529877215623856, -0.05345820635557175, -0.4683869183063507, 0.18821445107460022, 0.48829185962677, 0.9074982404708862, 0.6546760201454163, 0.239393949508667, -0.0053367288783192635, -0.3839268386363983, 0.5194607377052307, -0.04757809638977051, 0.09682571887969971, 0.08981498330831528, 0.22068673372268677, 0.2162715047597885, 0.3062278628349304, 0.10814373940229416, -0.2739158868789673, -0.20950348675251007, 0.08464501053094864, -0.8262207508087158, -0.6138907074928284, 0.03931128606200218, 0.0882510170340538, -0.6249143481254578, -0.4307204484939575, 0.4410654306411743, 0.8023747801780701, -0.5591089129447937, 0.1946958303451538, 0.5898049473762512, 0.16663987934589386, -0.1439908742904663, 0.2668207287788391, 0.0337689183652401, -0.140203058719635, -0.21849973499774933, 0.16431264579296112, -0.028217270970344543, 0.895027756690979, 0.5495522022247314, 0.7761667370796204, -0.23386038839817047, 0.027340035885572433, -0.10171276330947876, 0.05855945870280266, -0.11326301842927933, -0.2812163829803467, -0.45371806621551514, 0.33815285563468933, 0.5805736780166626, -0.04297990724444389, -0.10107380896806717, 0.1718970388174057, 0.03451763466000557, 0.14354121685028076, 0.36845555901527405, 0.31513726711273193, 0.309974730014801, -0.29811999201774597, -0.021540164947509766, 0.12126161903142929, 0.19639509916305542, -0.6172006726264954, 0.0929834395647049, 0.09266038984060287, 0.6242452263832092, 0.1446245312690735, -0.062294602394104004, -0.06634735316038132, 0.6772236227989197, -0.3199988603591919, -0.25670236349105835, 0.06333427876234055, 0.017796022817492485, 0.0020249539520591497, -0.35909304022789, -0.8163812160491943, 0.12519440054893494, -0.08184365183115005, 0.9284090399742126, -0.032463349401950836, 0.654614269733429, 0.7045553922653198, -0.016684256494045258, -0.01717069186270237, 0.1840207874774933, 0.2086295783519745, -0.08339785039424896, 0.1275651454925537], [-0.07902520149946213, 0.4426499605178833, 0.17114664614200592, 0.5258004665374756, -0.41586047410964966, -0.0769834965467453, -0.1792718768119812, -0.6710833311080933, 0.1534593105316162, -0.06465094536542892, -0.7695237994194031, -0.11842253804206848, -0.08773703873157501, -0.5062437653541565, -0.4363795518875122, -0.5970851182937622, 0.6418911814689636, -0.764227569103241, 0.2567095160484314, 0.5496273040771484, 0.23410604894161224, 0.3769177198410034, 0.08336872607469559, 0.49109286069869995, -0.12860706448554993, -0.18580441176891327, -0.19715064764022827, 0.68820720911026, 0.11221084743738174, 0.9333018660545349, 0.06951922923326492, 0.49880799651145935, 0.6774285435676575, 0.37606480717658997, -0.8045941591262817, 0.15295684337615967, -0.5141088962554932, 0.17595404386520386, -0.3444637060165405, -0.2155752331018448, 0.46269428730010986, 0.7370373606681824, 0.438863605260849, -0.12225016951560974, 0.06913947314023972, 0.10871699452400208, -0.30099809169769287, 1.020464539527893, -0.7399661540985107, 0.6875207424163818, 0.9134098887443542, 0.259356826543808, 0.3954782485961914, -0.3658742606639862, -0.0586145743727684, -0.1632028967142105, -0.5334874391555786, -0.1399141252040863, -0.7722266316413879, -0.49860480427742004, 0.4145961105823517, 0.21827228367328644, 0.3420493006706238, -0.46255022287368774, 0.4871784746646881, 0.3932008147239685, 0.23446224629878998, -0.2647984027862549, 0.017502225935459137, 0.16105929017066956, 0.008930161595344543, 0.02519451454281807, -0.020572902634739876, -0.6858373880386353, -0.6679333448410034, 0.47931772470474243, -0.8268111348152161, 0.350075900554657, 0.259637713432312, -0.30598679184913635, -0.40205562114715576, -0.3300623595714569, -0.10492721199989319, -0.14756235480308533, -0.3376452624797821, -0.7761167287826538, 0.24142016470432281, -0.3553227186203003, 0.35474690794944763, 0.024749550968408585, -0.24939358234405518, -0.393952876329422, -0.22337418794631958, -0.08167356252670288, 0.24014922976493835, 0.41929635405540466, 0.49959057569503784, 0.6211477518081665, 0.5753648281097412, 0.10556712746620178, -0.32354119420051575, -0.3134952485561371, -0.08366888016462326, 0.8484870195388794, 0.7115758657455444, -0.04314269497990608, 0.05800926312804222, 0.6175814867019653, 0.6584581136703491, -0.6211977601051331, 0.2570345401763916, 0.5940403342247009, -0.22915376722812653, 0.37525132298469543, 0.5989019274711609, 0.1167912408709526, -0.005330546759068966, -0.3832123279571533, -0.38698047399520874, 0.6428506374359131, -0.1789332628250122, 1.276234745979309, 0.4738771319389343, -0.02470105141401291, 0.3031081557273865, 0.24521957337856293, 0.4206642210483551, -0.5360131859779358, 0.08454378694295883, 0.07822530716657639, -0.16321460902690887, -0.3114178776741028, 0.3431661128997803, 0.47677990794181824, 0.5991865396499634, 0.3340918719768524, 0.4923041760921478, -0.06015094369649887, -0.3581715226173401, 0.06658272445201874, -0.44830918312072754, 0.7946469187736511, -0.429196298122406, -0.29285717010498047, -0.3484332859516144, -0.26174196600914, 0.2262895405292511, 0.6582061648368835, 0.55448979139328, 0.24525684118270874, 0.502875030040741, -0.37280920147895813, -0.15717855095863342, 0.9147499203681946, 0.1950763761997223, -0.7875499725341797, -0.2647618353366852, 0.0658465176820755, 0.23666518926620483, -0.30143260955810547, 0.41834092140197754, 0.15419091284275055, -0.071126289665699, -0.2940079867839813, 0.5306757092475891, 0.4914371371269226, -0.31565791368484497, -0.4010375440120697, -0.47144120931625366, 0.11223411560058594, 0.6653967499732971, -0.07283290475606918, 0.08903652429580688, 0.5799621343612671, -0.0446489155292511, 0.21288499236106873, -0.09485947340726852, -0.14956140518188477, -0.6495999097824097, 0.058701999485492706, 0.29306140542030334, 0.3004535138607025, -0.06767541170120239, 0.8568982481956482, -0.44166839122772217, -0.08942404389381409, -0.005473352503031492, 0.6549561023712158, 0.37485232949256897, -0.19699016213417053, -0.2398400753736496, 0.27600184082984924, -0.3628997504711151, -0.38973334431648254, -0.030282657593488693, -0.09919239580631256, -0.11705116927623749, -0.03962929919362068, 0.5863250494003296, 0.37291547656059265, 0.11548072844743729, 0.35138118267059326, -0.12896668910980225, 0.022874079644680023, -0.2431812584400177, -0.6914005279541016, 0.002461619209498167, 0.0926433652639389, -0.2765677869319916, -0.47651779651641846, 0.04048521816730499, 0.6819198131561279, 0.3806540369987488, -0.253966748714447, -0.0655427947640419, 0.013282723724842072, -0.43929949402809143, 0.1261730045080185, -0.19555437564849854, -0.1682957410812378, -0.6308146715164185, -0.39494454860687256, -0.05858685448765755, -0.15389713644981384, -0.01108480989933014, 0.39227548241615295, 0.0432901456952095, 0.0684247687458992, 0.08972971141338348, -0.1749851554632187, 0.06537854671478271, -0.21726128458976746, 0.09573035687208176, 0.2195214182138443, 0.04393372684717178, 0.25218045711517334, 0.26125603914260864, 0.4321122169494629, 0.33882930874824524, 0.5580418705940247, 0.9086642861366272, 0.3971949815750122, -0.1964690387248993, 0.2782965898513794, 0.19065140187740326, 0.08993110805749893, -0.10643996298313141, 0.3971838057041168, -0.35115042328834534, 0.3902651071548462, 0.3527337312698364, 0.5987805128097534, 0.5430962443351746], [-0.12959659099578857, 0.6386858224868774, 0.215239480137825, 0.1951683610677719, 0.22207380831241608, 0.038891177624464035, 0.4600292444229126, -0.7520530223846436, 0.20267851650714874, -0.035210516303777695, -0.8010828495025635, 0.7107542753219604, -0.04596675559878349, 0.0008904502610675991, 0.009782824665307999, -0.3483720123767853, 0.23904956877231598, -0.7846614718437195, 0.33265164494514465, 0.24014779925346375, 0.4322686791419983, 0.22987166047096252, 0.11810241639614105, 0.3691405653953552, 0.34853529930114746, -0.7361605167388916, -0.315007746219635, 0.6178948879241943, 0.38604170083999634, 0.5710731744766235, 0.40859416127204895, 0.371003657579422, 0.35332849621772766, 0.06157578527927399, -0.2833520174026489, -0.07222020626068115, 0.21668706834316254, 0.4653935134410858, -0.4226512014865875, 0.10849977284669876, 0.27392667531967163, 0.6937177181243896, 0.44657477736473083, 0.1380879133939743, -0.15234196186065674, 0.5751945376396179, 0.9802922010421753, 1.1199824810028076, 0.14226596057415009, 0.6307252645492554, -0.20725752413272858, 0.11124540120363235, -0.3598802387714386, 0.04141848161816597, 0.22196456789970398, 0.5210862755775452, 0.4049278199672699, 0.051473408937454224, 0.20653443038463593, -0.45459645986557007, 0.4912657141685486, 0.22335006296634674, -0.26722490787506104, -0.40590453147888184, 0.07597577571868896, 0.45263734459877014, 0.1640274077653885, -0.21770764887332916, -0.1078181266784668, -0.11865665018558502, -0.030219784006476402, -0.03460736200213432, 0.6661368012428284, -0.658491313457489, -0.6377307772636414, 0.145705446600914, -0.8786468505859375, -0.6049429178237915, 0.12112516164779663, -0.5327498912811279, 0.5213330388069153, 0.19144673645496368, 0.04790296033024788, -0.0047259763814508915, 0.04361020773649216, 0.2995501160621643, 0.12440524995326996, 0.31144776940345764, 0.5705749988555908, 0.4917966425418854, 0.11114177107810974, -0.2660267949104309, 0.17867350578308105, -0.2889958918094635, 0.6619553565979004, 0.19767412543296814, 0.4862203598022461, 0.6952044367790222, 0.034378401935100555, 0.07320573925971985, -0.28769683837890625, -0.05167027562856674, -0.01604178361594677, -0.8100202083587646, 0.7423062324523926, 0.027692802250385284, 0.40326201915740967, 0.44226589798927307, 0.6846932172775269, -1.2062331438064575, 0.9793918132781982, 0.032113950699567795, -0.8845500349998474, 0.16077043116092682, 0.7053643465042114, 0.47972989082336426, -0.04381034895777702, -0.007139682304114103, -0.002230348065495491, 0.254645973443985, -0.4440918564796448, 0.4869094491004944, 0.41389232873916626, 0.16581295430660248, 0.21397645771503448, 0.1722213178873062, 0.3492617905139923, -0.6018257141113281, 0.18739652633666992, 0.5514308214187622, -1.6671292781829834, 0.09686938673257828, 0.14903222024440765, 0.02416130341589451, -0.42888393998146057, 0.5642880797386169, 0.35553619265556335, 0.1594715267419815, -0.22219973802566528, 0.7348376512527466, 0.16290031373500824, -0.7882654070854187, 0.315924733877182, -0.6325007081031799, 0.27830740809440613, 0.3748384118080139, 0.8821524977684021, 0.36523038148880005, -0.49348506331443787, 0.7624260783195496, 0.5951019525527954, 0.3048119843006134, 0.3457011878490448, -0.25496208667755127, 0.24075572192668915, -0.19463446736335754, -0.14372453093528748, 0.11329744011163712, -0.4875654876232147, 0.6008147597312927, 0.6653171181678772, 0.07405558228492737, -0.24987958371639252, -0.389494389295578, 0.2611227333545685, 0.15025727450847626, 0.013158606365323067, 0.616921067237854, 0.39913833141326904, -0.045361101627349854, 0.3114161193370819, 0.221985325217247, -0.2384040653705597, 0.19443374872207642, -0.11208392679691315, 0.1069028377532959, -0.05489405617117882, 0.14996005594730377, -0.6689069867134094, 0.034999847412109375, 0.08548996597528458, -0.7442185878753662, 0.12264738231897354, -0.8052899837493896, -0.195120170712471, 0.27186882495880127, 0.017861023545265198, 0.6372855305671692, 0.31027427315711975, 0.24685950577259064, 0.5084013342857361, 0.6670052409172058, 0.04838573560118675, 0.1879677027463913, 0.04220680519938469, -0.10606222599744797, 0.335746705532074, -0.2237524688243866, 0.6972424387931824, 0.36971551179885864, -0.06290211528539658, 0.24121147394180298, -0.8676558136940002, -0.3552383780479431, 0.5296254754066467, 0.4693009555339813, 0.017703691497445107, 0.15731129050254822, -0.1329045444726944, 0.04925059899687767, 0.03256240487098694, -0.3621830642223358, 0.19639958441257477, -0.09446901828050613, 0.08287527412176132, -0.05298682302236557, -0.05195808410644531, 0.12237072736024857, -0.21405205130577087, -0.27125391364097595, -0.7272154688835144, -0.23000268638134003, 0.46214568614959717, -0.30657634139060974, -0.16382494568824768, -0.4735056757926941, 0.31220105290412903, 0.36182108521461487, -0.3289881646633148, 0.6756944060325623, 0.387812077999115, -0.6653595566749573, 0.1596873700618744, 0.32450294494628906, 0.3926028609275818, -0.47609636187553406, 0.06010090932250023, 0.3962411880493164, 0.4499916732311249, 0.05743368715047836, 0.7064046859741211, 0.18978480994701385, -0.17740091681480408, 0.1932435780763626, 0.2680204510688782, 0.04901362583041191, 0.10543159395456314, 0.1859399676322937, 0.14653553068637848, -0.5835376381874084, 0.2040262222290039, 0.6792322397232056, 0.6967674493789673], [-0.29532361030578613, -0.458186537027359, -0.17950190603733063, 0.3121818006038666, -0.12274341285228729, -0.2249756157398224, 0.3984861969947815, 0.13140779733657837, 0.4970584213733673, -0.10914385318756104, 0.47331663966178894, 0.8719053268432617, 0.04528374597430229, -0.2627502977848053, -0.4073898196220398, -1.212601900100708, 0.35792112350463867, 0.04568285867571831, 0.19361646473407745, 0.47593605518341064, 0.09730362892150879, -0.483262836933136, 0.2998720407485962, -0.8069259524345398, 0.3140759766101837, 0.5367555618286133, 0.21056941151618958, -0.2806175649166107, 0.23466065526008606, 0.30413705110549927, 0.24118711054325104, -0.4219902455806732, -0.8105365037918091, 0.12067519128322601, 1.0064095258712769, 0.1199694350361824, -0.4075199067592621, 0.7270142436027527, 0.7072049975395203, -0.3399966061115265, 0.2877447009086609, -0.25797712802886963, 0.12265078723430634, 0.319429874420166, -0.4716794788837433, 0.6522595882415771, 0.33966124057769775, -1.3118329048156738, -0.5428960919380188, -0.21908551454544067, 0.3427307903766632, 0.20626607537269592, 0.26537102460861206, 0.4546927213668823, -0.029730718582868576, 0.1824662685394287, 0.4896961450576782, 0.029219327494502068, -0.6182522177696228, -0.4957531988620758, -0.1528448760509491, 0.6130800843238831, 1.334977388381958, 0.37420958280563354, 0.2914447784423828, 0.16897472739219666, 0.27035096287727356, -0.20837880671024323, -0.13807989656925201, 1.153476595878601, 0.07446682453155518, 0.1155453473329544, 0.018699755892157555, -0.13672097027301788, 0.34334978461265564, 0.32769837975502014, -1.0584988594055176, -0.17443349957466125, 0.2819890081882477, -0.48566243052482605, 0.6956296563148499, -0.17808738350868225, 0.18846362829208374, -0.10133951157331467, -0.4391889274120331, -0.5287628769874573, 0.4384940564632416, -0.38802823424339294, 0.38898947834968567, 0.47618368268013, 0.17689894139766693, -0.22385023534297943, -0.08030770719051361, 0.5170518755912781, -0.2726409435272217, 0.10692767053842545, -0.24779140949249268, -0.40262725949287415, 0.4565521776676178, -0.08113900572061539, -0.29296672344207764, -0.04944775626063347, -0.1322285532951355, 0.3921057879924774, -0.4011389911174774, 0.2941426932811737, 0.19427615404129028, -0.5978842973709106, -0.40096214413642883, -1.2744576930999756, 0.21446163952350616, 0.3403025269508362, 0.2615450918674469, -0.001991038676351309, -0.4009528160095215, 0.6949900388717651, -0.32772672176361084, -0.09176106005907059, -0.28130215406417847, 0.6595078706741333, -0.18602584302425385, -0.4017995297908783, -0.306187242269516, 0.2464711219072342, 0.4177657663822174, 0.020504653453826904, 0.24859696626663208, -0.37933778762817383, 0.2511805593967438, 0.48772087693214417, -0.8454742431640625, -0.3959828019142151, 0.24586625397205353, -0.17657390236854553, -0.7858037948608398, 0.15962694585323334, -0.08554863929748535, 0.5475342273712158, -0.2780505120754242, 0.40386077761650085, 0.02634960226714611, 0.42425382137298584, 0.011181490495800972, -0.03924580663442612, -0.3436914086341858, -0.5356120467185974, 0.8651408553123474, 0.6356399655342102, -0.6728895306587219, 0.6074097156524658, 0.5668094754219055, -0.16386842727661133, -0.08328043669462204, 0.40341827273368835, -0.2911214232444763, 0.5916101932525635, -0.3439519703388214, -0.22296755015850067, 0.19334815442562103, 0.6652382016181946, 0.28751567006111145, 0.6049224734306335, -0.2438141107559204, 0.5858906507492065, 0.23077638447284698, 0.2513895630836487, 0.973994791507721, -0.12177335470914841, -0.10777932405471802, 0.2719953954219818, 0.6404871940612793, 0.3029700815677643, -0.2072925716638565, 0.3275819718837738, -0.06470712274312973, -0.09849169850349426, -0.2840825617313385, -0.09864475578069687, -0.2300083488225937, 0.1602921038866043, 0.34862279891967773, 0.13291847705841064, 0.3742459714412689, 0.6686148643493652, 0.6234588623046875, 0.25285667181015015, -0.000852964527439326, -0.11566430330276489, -0.5121289491653442, 0.37672799825668335, 0.12760929763317108, 0.3952592611312866, 0.8391401171684265, -0.12557297945022583, 0.15308241546154022, 0.20734305679798126, -0.11531917005777359, -0.04223894700407982, -0.40147289633750916, -0.37107372283935547, 0.675900399684906, 0.09530201554298401, 0.34006980061531067, -0.6370721459388733, 0.10774041712284088, 0.9707565307617188, 0.08214497566223145, 0.005908520892262459, 0.1164681538939476, 0.42458802461624146, 0.2982383072376251, 0.5542882084846497, 0.4371224045753479, -0.4227469861507416, 0.3204745352268219, 0.4182346761226654, -0.1235039010643959, 0.3511648178100586, 0.3882465064525604, 0.27496975660324097, 0.17881332337856293, -0.19600345194339752, 0.4653521776199341, 0.5686349868774414, 0.02264917641878128, -0.019079195335507393, 0.45129692554473877, 0.09655237942934036, 0.4435090124607086, 0.10971871763467789, 0.1755484789609909, -0.32526305317878723, -0.1387089639902115, 0.3038560152053833, 0.2937909960746765, 0.33340057730674744, -0.2622279226779938, 0.4661129415035248, -0.3600460886955261, -0.3098262846469879, 0.3962474465370178, 0.4143369495868683, 0.27662619948387146, 0.4374471604824066, -0.09261762350797653, -0.3148558437824249, -0.5799480080604553, 0.1923832893371582, 0.6137673854827881, -0.0841788649559021, 0.2457573264837265, -0.4018763601779938, 0.12431701272726059], [0.4767182767391205, 0.38050752878189087, 0.2216033786535263, 0.07502002269029617, 0.049037788063287735, -0.0008885038550943136, 0.07030432671308517, -0.8714151382446289, 0.47727543115615845, 0.025866705924272537, -1.0739654302597046, -0.29619067907333374, -0.02205631323158741, 0.17394651472568512, 0.12819118797779083, 0.5745915174484253, -0.18632107973098755, -0.8360742926597595, 0.14902861416339874, -0.43272992968559265, 0.18284116685390472, 0.5943160057067871, 0.10832564532756805, 0.6956729888916016, 0.2795230448246002, -0.1106439083814621, -0.1480289101600647, 0.375532865524292, 0.16586388647556305, 0.638885498046875, 0.39016351103782654, 0.354641318321228, 0.6442533135414124, -0.022970523685216904, -0.9011076092720032, 0.25890809297561646, -0.41228845715522766, 0.30987295508384705, -0.42954036593437195, -0.33701857924461365, 0.06798772513866425, 0.45326855778694153, 0.030676275491714478, -0.01167034450918436, 0.8768835663795471, 0.4536804258823395, -0.5574101209640503, -0.7812080383300781, -0.6607204675674438, 0.32890960574150085, 0.3351952135562897, -0.10496112704277039, 0.6426035761833191, -0.02959465980529785, -0.2142879217863083, -0.8068920373916626, 0.010114808566868305, -0.31526824831962585, -0.024117302149534225, 0.3403012454509735, 0.4789366126060486, -0.2803157567977905, -0.32385537028312683, -0.5815721154212952, -0.11584757268428802, 0.35122060775756836, -0.17681702971458435, 0.26229631900787354, 0.04544195532798767, 1.0896074771881104, 0.4908510148525238, 0.2647310495376587, 0.1406957060098648, -0.7087206840515137, -0.9338980913162231, -0.23152808845043182, 0.7220019698143005, 0.8405811190605164, -0.11354102194309235, 0.6680046916007996, 0.1815841794013977, -0.3083789348602295, -0.7504421472549438, 0.07024791091680527, -0.12546364963054657, -0.5213202834129333, -0.261874258518219, -0.38001009821891785, 0.034586936235427856, 0.25344017148017883, -0.10371403396129608, 0.23993214964866638, -0.044761206954717636, 0.1530276983976364, -0.2101515829563141, 0.1937617063522339, 0.5885318517684937, 0.6764673590660095, -0.1514797955751419, 0.10918339341878891, -0.3879476487636566, 0.13958653807640076, 0.07430742681026459, 0.867100179195404, 0.7870842218399048, 0.33020344376564026, 0.39442119002342224, 0.6682066917419434, 0.6990171074867249, 1.1234382390975952, -0.24409767985343933, -0.14956125617027283, -0.07688938081264496, 0.6577985286712646, 0.7431879639625549, 0.2222459614276886, 0.47043299674987793, -0.0505187064409256, -0.056218571960926056, -0.5346418619155884, 0.2589486241340637, 0.048910267651081085, 0.31766754388809204, -0.04157903790473938, -0.4045262336730957, 0.3693573474884033, 0.10918527096509933, -0.6958717703819275, 0.08611425757408142, -0.24675798416137695, 1.3355516195297241, -0.5195828676223755, -0.08185861259698868, 0.30113235116004944, -0.23112700879573822, 0.14114834368228912, 0.3403913676738739, -0.4071069657802582, 0.24983254075050354, -0.026571152731776237, -0.2497154027223587, 0.8320379853248596, -0.3488777279853821, 0.3552219569683075, -0.49453261494636536, -0.29562655091285706, 0.32256537675857544, -0.4017373025417328, -0.30303147435188293, 0.6385086178779602, 0.1958507001399994, -0.3112134039402008, 0.04139242321252823, 0.3662585914134979, 0.20267264544963837, -0.673568606376648, 0.22131183743476868, 0.27814358472824097, 0.40116146206855774, -0.8429446816444397, 0.7548198699951172, 0.47627729177474976, 0.28737667202949524, -0.1746979057788849, 0.18183262646198273, -0.09219889342784882, -0.11820340156555176, -0.8133869767189026, -0.34309571981430054, 0.526032030582428, -0.40857312083244324, -0.0346292182803154, -0.06651883572340012, -0.19344598054885864, 0.0431787483394146, -0.06030483916401863, 0.3151804506778717, -0.17392781376838684, -0.6455191969871521, 0.29563069343566895, 0.22423574328422546, 0.3930938243865967, 0.2178485244512558, 0.7551798224449158, -0.5798324346542358, 0.03361763432621956, 0.15157732367515564, 0.3261811435222626, 0.315079927444458, 0.24920754134655, 0.18693014979362488, 0.6567971110343933, -0.4078986346721649, -0.29421526193618774, -0.20623347163200378, 0.41838210821151733, -0.03656087443232536, 0.11943497508764267, 0.7136754989624023, 0.19170403480529785, 0.5219456553459167, 0.13707235455513, 0.02396148443222046, 0.8321897983551025, 0.20919841527938843, -0.9326131343841553, 0.09610248357057571, 0.013970412313938141, -0.2914509177207947, -0.49854329228401184, 0.07501967996358871, 0.6370341181755066, -0.14795257151126862, -0.11200093477964401, -0.1699684113264084, 0.036188915371894836, 0.16902288794517517, -0.4621923863887787, -0.5403127670288086, -0.20193473994731903, -0.8923180103302002, 0.13887415826320648, 0.5596575736999512, 0.35993295907974243, -0.09155547618865967, 0.2729123830795288, -0.36478865146636963, 0.24167606234550476, 0.42626482248306274, 0.1935528814792633, 0.040348224341869354, 0.47704800963401794, 0.06549949944019318, 0.14929720759391785, -0.09211215376853943, 0.5260818600654602, 0.10696731507778168, 0.022629594430327415, 0.32150620222091675, 0.5174578428268433, 0.7314303517341614, -0.22236895561218262, 0.3104470670223236, 0.6703209280967712, 0.21339629590511322, 0.4289481043815613, 0.0422510951757431, -0.13531042635440826, 0.2710809111595154, 0.8040382266044617, -0.07391906529664993, 0.7459267973899841, 0.6950854063034058], [0.22099117934703827, -0.358812540769577, -0.0019054878503084183, 0.7242507934570312, -0.1677590161561966, 0.10136771947145462, 0.4616360366344452, 0.7019321322441101, -0.16290821135044098, 0.027972504496574402, 0.9293579459190369, 0.6599661707878113, 0.2514532208442688, 0.37908923625946045, 0.3781212568283081, 0.42531663179397583, 0.3308006227016449, 0.7260517477989197, 0.48559245467185974, 0.39898228645324707, 0.181697815656662, -0.04261762648820877, 0.17028523981571198, -0.5301883220672607, -0.3625076115131378, 0.912072479724884, 0.455914169549942, -0.41429954767227173, 0.19551405310630798, -0.5256041884422302, -0.2453027367591858, -0.24050037562847137, 0.562181293964386, 0.23577803373336792, 1.034932255744934, 0.3368205726146698, 0.3449602425098419, 0.24125005304813385, 0.593606173992157, 0.3624107539653778, -0.4694032669067383, -0.36150309443473816, -0.2850450873374939, 0.4706254005432129, -0.1569572389125824, 0.18432481586933136, 0.45812463760375977, 0.9290567636489868, 0.365740031003952, -0.31278112530708313, 0.7598843574523926, 0.08423324674367905, 0.8311212062835693, 0.5030736327171326, 0.2611681818962097, 0.8480203747749329, 0.028487656265497208, 0.36661744117736816, -0.8045106530189514, -0.24665473401546478, -0.1130465418100357, -0.03334489464759827, 0.19897888600826263, 0.5623288750648499, 0.22286485135555267, -0.5501185059547424, 0.3405015766620636, -0.13745248317718506, 0.17786528170108795, -0.43058595061302185, 0.35255101323127747, -0.00416090153157711, 0.2526569664478302, 0.6717479228973389, 0.8838440179824829, 0.29456785321235657, -0.37613561749458313, 0.6125072836875916, 0.2639060914516449, -0.2853250205516815, 0.14196692407131195, 0.1884349286556244, 0.9157240986824036, -0.06254909187555313, -0.5179012417793274, 0.48644959926605225, 0.4763791859149933, 0.30619657039642334, -0.3281247615814209, 0.739930272102356, 0.019802341237664223, 0.021626515313982964, -0.34612929821014404, 0.3691056966781616, 0.09870397299528122, -0.37574148178100586, -0.12357278168201447, -0.23618203401565552, -0.4452618956565857, 0.017120400443673134, 0.3758939802646637, 0.48850592970848083, 0.07148571312427521, -0.155332550406456, -0.23675204813480377, 0.41663867235183716, -0.24274837970733643, -0.3451346457004547, -0.23598311841487885, -0.6607189774513245, -0.5937942862510681, 0.28966328501701355, 1.1343514919281006, -0.14366953074932098, -0.2365034520626068, 0.6849214434623718, 0.21738332509994507, 0.27571791410446167, 0.14240317046642303, 0.5504297614097595, -0.0854361280798912, -0.6032977104187012, -0.5510221719741821, 0.2426905632019043, 0.4889339208602905, 0.22467881441116333, 0.47793248295783997, 0.6222057938575745, 0.11425928771495819, -0.5584319829940796, -0.9680066704750061, 0.1659204214811325, 0.3215508460998535, -0.412463903427124, -0.17603161931037903, -0.46535128355026245, -0.42496365308761597, 0.6877974271774292, 0.4768332839012146, -0.01391108613461256, -0.3376648426055908, -0.06010391563177109, 0.2844369411468506, 0.0035593658685684204, 0.6237331032752991, 0.3228001296520233, 1.091646432876587, 0.6025756597518921, -0.22485753893852234, -0.41604846715927124, -0.4447725713253021, 0.376276433467865, 0.138630211353302, 0.7527473568916321, -0.26509565114974976, 0.7699639201164246, 0.018802303820848465, 0.2248934507369995, 0.3919680118560791, 0.4197985827922821, -0.40683433413505554, -0.101498082280159, 0.21056467294692993, 0.4062798321247101, -0.48805466294288635, 0.3610561490058899, -0.03703581914305687, 0.6409968733787537, 0.44495856761932373, -0.01327462401241064, 0.5733121037483215, 0.15942874550819397, 0.5317035913467407, 0.31074973940849304, 0.14967703819274902, 0.11575940251350403, -0.20245476067066193, 0.10082841664552689, 0.6328639984130859, 0.22761137783527374, -0.07375994324684143, 0.003713558427989483, 0.443565309047699, -0.30298277735710144, 0.7942760586738586, -0.0568072535097599, -0.2648954689502716, -0.28270038962364197, -0.37264907360076904, -0.1456831842660904, -0.15860307216644287, -0.35760217905044556, 0.5279704928398132, 0.530646026134491, 0.19061924517154694, 0.2443578541278839, 0.15954171121120453, 0.2176162749528885, -0.2372041493654251, -0.1766611784696579, 0.37094858288764954, 0.13997596502304077, 1.0931295156478882, -0.17260359227657318, -0.08690569549798965, 1.0417168140411377, 0.27288618683815, 0.00724543072283268, 0.2562703490257263, 0.537341296672821, 0.19307218492031097, -0.32609912753105164, -0.03500878065824509, -0.400863915681839, 0.3804735541343689, -0.01361764781177044, -0.12004948407411575, 0.19057334959506989, 0.3418959081172943, 0.4181966483592987, 0.7068123817443848, -0.00030114088440313935, -0.4489532709121704, 0.3888581693172455, 0.2539640963077545, 0.09241322427988052, 0.6628155708312988, -0.4370511770248413, 0.21734261512756348, -0.16722065210342407, 0.10275350511074066, -0.20951807498931885, 0.09749989956617355, 0.616182267665863, 0.25502946972846985, -0.04485829919576645, 0.21675574779510498, 0.24813713133335114, -0.3183216154575348, -0.6133438348770142, -0.7397268414497375, 0.3621942400932312, 0.1388975977897644, 0.5293777585029602, -0.3054318130016327, -0.13654135167598724, 0.17299926280975342, 0.29767024517059326, 0.37332427501678467, 0.5753560662269592, 0.3940408229827881, -0.2367391288280487, 0.02852311171591282], [-0.10670851916074753, 0.09213925153017044, 0.064208984375, -0.034676145762205124, -0.06212695688009262, 0.20645324885845184, 0.41102877259254456, 0.6830365657806396, 0.15605321526527405, 0.07945170253515244, 0.6237038969993591, 1.0879889726638794, 0.39867493510246277, 0.4344046413898468, 0.40640580654144287, 0.8692229986190796, -0.1427028626203537, 0.1296963393688202, 0.4043115973472595, -0.32247915863990784, 0.35041186213493347, 0.5271117091178894, 0.15657970309257507, -0.546195387840271, 0.5665881037712097, -0.2843736708164215, -0.28699854016304016, 0.47221213579177856, 0.21436062455177307, 0.7566370964050293, 0.7280848622322083, 0.42149826884269714, 0.8301146626472473, 0.0664018839597702, -1.1068878173828125, 0.6862226724624634, 0.15071360766887665, 0.42817169427871704, 0.7667707800865173, 0.18341456353664398, -0.0013356709387153387, 0.5455845594406128, 0.07273297756910324, 0.3852565884590149, -0.43082213401794434, 0.5690047740936279, 0.15096838772296906, 1.207884669303894, 0.35666149854660034, 0.44923728704452515, -0.148157000541687, -0.08974197506904602, -0.00438992865383625, 0.14906981587409973, 0.0522066205739975, 0.3181218206882477, 0.15685740113258362, -0.09375771135091782, -0.5253294706344604, -0.5519447922706604, -0.17341667413711548, -0.36111411452293396, -1.5504282712936401, 0.13829673826694489, 0.051017649471759796, -0.1225171610713005, 0.03670688718557358, 0.14561468362808228, 0.23043622076511383, 0.603632390499115, 0.5764799118041992, 0.09568917006254196, 0.38075852394104004, -0.39229685068130493, 0.6181590557098389, -0.22852610051631927, -1.0020365715026855, -0.21189424395561218, 0.08226646482944489, -0.6069077253341675, -0.24229024350643158, 0.06812360137701035, 0.34401270747184753, 0.15207839012145996, -0.4922410845756531, 0.21350470185279846, 0.2474217563867569, 0.2328529804944992, 0.5560838580131531, 0.5173320770263672, -0.16689856350421906, 0.4209376871585846, -0.17149582505226135, 0.31328943371772766, 0.7026281952857971, -0.19241517782211304, -0.22001640498638153, -0.3910650908946991, -0.5779106020927429, 0.07013631612062454, 0.13705076277256012, 0.3965243697166443, 0.19772356748580933, 0.8926939368247986, -0.3895352780818939, 0.48513779044151306, 0.6487202644348145, -0.4978582561016083, -0.38836008310317993, 1.0475367307662964, -0.2603660821914673, 0.24134552478790283, -0.08623889833688736, 0.24640335142612457, -0.3909505605697632, 0.36836743354797363, -0.01247135829180479, -0.3300671875476837, 0.06837587803602219, -0.15233995020389557, 0.237932488322258, 0.29108619689941406, -0.29849568009376526, -0.17439763247966766, -0.34313029050827026, 0.38740572333335876, 0.3781934678554535, -0.20554989576339722, 0.408385306596756, 0.03721911832690239, -0.66053307056427, 0.12592564523220062, 0.11948562413454056, 0.008726365864276886, -0.16265296936035156, 0.6206686496734619, 0.13852302730083466, 0.2507089376449585, 0.6050479412078857, 0.5872116088867188, -0.33746713399887085, 0.8130383491516113, 0.03505558893084526, 0.07372470945119858, 0.4873509407043457, 0.40402671694755554, 1.4341744184494019, -0.00809909962117672, -0.10955896973609924, 1.118733286857605, 0.5094985961914062, 0.33540403842926025, 0.06141724810004234, -0.134717658162117, 0.20977409183979034, 0.32939890027046204, 0.03460104763507843, 0.3560389578342438, 0.5777652263641357, 0.36617839336395264, 0.4243326783180237, 0.10241536051034927, 0.1215573102235794, 0.5048069953918457, -0.25587770342826843, 0.015263237990438938, -0.6567466259002686, -0.1445908397436142, 0.36641404032707214, 0.2192590832710266, -0.2582316994667053, 0.29273632168769836, 0.14605307579040527, -0.05052671954035759, 0.2705247402191162, 0.21601366996765137, 0.21381016075611115, 0.08066081255674362, -0.14002469182014465, 0.2912827134132385, 0.01985955983400345, 0.07793166488409042, 0.6892724633216858, 1.112426996231079, 0.4078526794910431, 0.5547803044319153, -0.2129770815372467, 0.4084547758102417, 0.29989078640937805, -0.43204328417778015, 0.10520297288894653, 1.0866409540176392, -0.7141884565353394, 0.47759002447128296, -0.023915868252515793, 0.7370390892028809, 0.3202263414859772, 0.21435247361660004, -0.3927697241306305, 0.3588945269584656, 0.3605993390083313, 0.2219572514295578, -0.19433052837848663, 0.5416479706764221, 0.10482004284858704, -0.20510797202587128, 0.47774428129196167, 0.13167953491210938, 0.20555144548416138, 0.1474207192659378, 0.30592378973960876, 0.3849571645259857, -0.39962244033813477, -0.23290079832077026, -0.2854752242565155, -0.11811091005802155, 0.22803586721420288, -0.10087765008211136, 0.16225826740264893, -0.24951307475566864, 0.6522142887115479, 0.4432142972946167, 0.9146615862846375, 0.7818320989608765, 0.18103305995464325, 0.0003116644802503288, 0.6493433713912964, 0.05354522168636322, 0.4567797780036926, 0.19588471949100494, 0.2571752667427063, 0.5142327547073364, 0.17639632523059845, 0.423105388879776, 0.32475295662879944, 0.5216763019561768, 0.36757779121398926, 0.46824344992637634, -0.22385326027870178, -0.29078876972198486, 0.689967691898346, 0.06695414334535599, 0.39286670088768005, 0.5513525009155273, 0.22961938381195068, -0.5632085800170898, 0.2755284309387207, -0.04244512319564819, 0.7017638683319092, -0.19858190417289734, 0.21049992740154266, -0.39087027311325073, 0.5631078481674194], [0.4180455207824707, -0.03512723743915558, 0.08526429533958435, 0.11252237856388092, 0.6717615127563477, -0.07534892857074738, 0.12913624942302704, 0.9632604122161865, 0.27440130710601807, 0.5302961468696594, 0.8156009912490845, 0.06095326319336891, 0.4401368200778961, 0.41849538683891296, 0.32910266518592834, 0.0921361893415451, -0.36776629090309143, 0.9197610020637512, -0.1724005490541458, -0.5417097210884094, -0.0002747480757534504, -0.08255425840616226, 0.12135503441095352, 0.5431491732597351, 0.43596959114074707, -0.2353358417749405, -0.21754570305347443, -0.6552636027336121, 0.3163028657436371, 0.21038131415843964, 0.462643027305603, -0.3568970561027527, -0.7252339124679565, -0.33837124705314636, 0.45947518944740295, 0.15940771996974945, -0.03581954538822174, 0.4310454726219177, 0.1896493285894394, 0.3104078471660614, -0.19584912061691284, -0.5901584625244141, -0.4087459444999695, -0.1834176778793335, 0.3517908453941345, 0.7890357375144958, -0.07165750116109848, -1.3204516172409058, 0.09818314015865326, -0.5646738409996033, -0.7115969061851501, -0.2233787626028061, -0.031303003430366516, 0.36803463101387024, 0.06440910696983337, -0.4450215697288513, 0.9071498513221741, 0.08307595551013947, 1.4414643049240112, 0.39691221714019775, 0.4211236536502838, 0.45969125628471375, 0.6878870129585266, 0.5967296361923218, -0.10228271037340164, 0.28976136445999146, -0.2918557822704315, 0.22878257930278778, 0.24327440559864044, 0.9538434147834778, 0.056363437324762344, 0.3186737596988678, 0.7208924889564514, 0.6871345043182373, 0.8362131118774414, -0.16062679886817932, 1.078724980354309, 0.23949135839939117, -0.11716844141483307, 0.5575442314147949, 0.6349508166313171, -0.1713692545890808, -0.6502741575241089, 0.5745238065719604, 0.5627148151397705, -0.04970189183950424, -0.0738668367266655, 0.14497613906860352, 0.1875750720500946, 0.5692191123962402, 0.2767808437347412, 0.5068688988685608, 0.40496689081192017, 0.23167695105075836, -0.08611615747213364, 0.35845983028411865, 0.49225687980651855, 0.7311993837356567, -0.02444317564368248, -0.18079739809036255, 0.15276959538459778, 0.15220443904399872, 0.12875278294086456, -0.75093013048172, 0.7177015542984009, 0.410110741853714, 0.47598886489868164, 0.5433297157287598, 0.6519765257835388, 0.9614096879959106, -0.2269609272480011, -0.2863963842391968, -0.3008878827095032, 0.6760064959526062, 0.6754983067512512, 0.38192513585090637, 0.39330601692199707, 0.20406074821949005, 0.14293263852596283, -0.6177111268043518, 0.5870115756988525, 0.5180826187133789, -0.1312723308801651, 0.0890708863735199, -0.38204899430274963, -0.14535698294639587, 0.29245272278785706, 0.5747913122177124, 0.10915017127990723, 0.1619807779788971, 1.296369194984436, 0.2164028286933899, -0.21172630786895752, -0.027874939143657684, -0.5984538197517395, 0.12267816066741943, -0.1976722925901413, -0.20552726089954376, 0.04648200422525406, 0.44113147258758545, 0.5263617038726807, -0.7226917147636414, -0.24391408264636993, 0.3265093266963959, -0.050983842462301254, -0.19344276189804077, 0.08143910765647888, -0.6239499449729919, -0.6651138067245483, 0.5489815473556519, 0.21164856851100922, 0.2061975598335266, 0.07473398745059967, -0.6767088770866394, -0.05201924219727516, 0.1153193861246109, 0.4012264013290405, 0.3241731524467468, -0.23627059161663055, 0.13387168943881989, 0.2759987413883209, 0.43235331773757935, 0.16212747991085052, 0.43351081013679504, 0.043625012040138245, -0.36129236221313477, 0.6520030498504639, -0.18477940559387207, -0.03300144895911217, 0.4783194661140442, -0.4791104793548584, 0.14573051035404205, -0.3272775709629059, -0.2453957498073578, 0.1932045966386795, -0.18003246188163757, 0.14871986210346222, -0.20895907282829285, 0.8212994933128357, -0.202321857213974, -0.1363278329372406, 0.17263588309288025, 0.27304142713546753, -1.0829704999923706, -0.04786477982997894, 0.6285392642021179, 0.3927050530910492, -0.5231936573982239, -0.3744046986103058, 0.577410101890564, 0.6572761535644531, 0.6047463417053223, 0.403329998254776, 0.12013151496648788, 0.002283439040184021, 0.46737170219421387, -0.06593437492847443, 0.18779891729354858, 0.6615739464759827, -0.28253230452537537, 0.4389108717441559, -0.3657018840312958, -0.31828367710113525, 0.5484837889671326, 0.6980932950973511, 0.3004186153411865, 0.37192028760910034, -0.20580123364925385, 0.2520889639854431, -0.20957745611667633, 0.20326361060142517, 0.37859973311424255, -0.0296035036444664, 0.7332607507705688, 0.10202967375516891, 0.14491866528987885, 0.14826107025146484, -0.4098113477230072, 0.5378969311714172, -0.17101413011550903, 0.9977109432220459, 0.44067859649658203, 0.5425943732261658, 0.5199076533317566, 0.200215682387352, 0.12395786494016647, -0.40754571557044983, 0.3312907814979553, 0.5753163695335388, 0.5720680952072144, 0.39556559920310974, 0.6078622341156006, -0.09160804748535156, -0.01664164662361145, -0.04874076321721077, 0.12844224274158478, -0.00022750349307898432, -0.07412243634462357, 0.37651488184928894, 0.37693387269973755, 0.40042635798454285, -0.40165281295776367, 0.460423082113266, 0.6739618182182312, 0.639068603515625, 0.7470901608467102, 0.6502904891967773, -0.31478649377822876, 0.854067862033844, 0.14379888772964478, -0.2757726311683655, 0.6576947569847107, 0.12477380782365799]], "l1.bias": [0.761006236076355, 0.7526580095291138, 0.8123134970664978, 0.3805658519268036, 0.8322945237159729, 0.22883455455303192, 0.38097164034843445, 0.8267514705657959], "l2.weight": [[0.0006107435328885913, 0.013473196886479855, 0.8913059234619141, -0.5998890399932861, 1.522253155708313, -0.563754141330719, 0.5780651569366455, 0.26081958413124084], [1.2558339834213257, -0.7554654479026794, 1.1959196329116821, 1.2005836963653564, -1.2606263160705566, 1.342812180519104, 0.7082861661911011, 0.02081993967294693], [-0.577826976776123, -0.7255442142486572, -1.2717217206954956, 1.6131592988967896, 1.2522698640823364, 0.6028884053230286, 0.3535907566547394, 1.4799787998199463], [-0.6822550892829895, -0.45553159713745117, 0.6273319125175476, 0.08270910382270813, 0.4140738844871521, 0.25755441188812256, 1.6465425491333008, 0.05137049779295921], [-0.47922295331954956, 1.8195351362228394, 0.9855424761772156, 0.39559853076934814, 1.5501816272735596, -0.6805130839347839, 0.5493135452270508, -0.12828859686851501], [0.514750599861145, 1.792704463005066, -0.8173527717590332, -0.06184781342744827, 1.752822756767273, 0.5198900103569031, 0.8903318047523499, -1.0379137992858887], [1.3814034461975098, -0.7511618137359619, -1.1002655029296875, -1.6689153909683228, 1.2501665353775024, 0.44117429852485657, 0.8813369274139404, 1.0528491735458374], [0.7072569131851196, -0.5212509036064148, 0.2454640120267868, 0.26239803433418274, 1.099323034286499, -0.8266311287879944, -0.49347984790802, 1.4540995359420776]], "l2.bias": [-0.20798906683921814, 0.34151187539100647, -0.5361002087593079, -0.6764772534370422, 0.5379464626312256, -0.01595793291926384, 0.3768603205680847, 0.8987624049186707], "l3.weight": [[-2.8257179260253906, 0.6864671111106873, 0.45514431595802307, -1.8595048189163208, -1.9102206230163574, -1.716599941253662, -0.9243435859680176, 0.24042479693889618], [0.3842502534389496, 0.23611582815647125, -1.3864145278930664, -0.08524416387081146, 0.31635943055152893, -0.8359326124191284, -1.9994983673095703, 0.41045743227005005], [0.30155184864997864, 0.01254942175000906, -1.614646077156067, 0.40666690468788147, -0.2579026222229004, 0.34243977069854736, 0.1829456388950348, -1.7678920030593872], [0.5430123209953308, -1.1067273616790771, -1.8639944791793823, 0.42624804377555847, 0.4794308543205261, 0.3209121823310852, -1.4439406394958496, -1.480534315109253], [-1.4540205001831055, 0.29092755913734436, 0.4590204954147339, 0.8912007212638855, -0.3045032024383545, -1.326733112335205, -1.5596791505813599, -1.125974416732788], [-0.2960954010486603, 0.7815235257148743, -1.6624517440795898, -0.32554930448532104, -0.7805167436599731, -1.049180030822754, 0.41522082686424255, -0.057749271392822266], [0.060507528483867645, -0.3011661171913147, -0.40542054176330566, -1.7880295515060425, -0.5287066698074341, -2.8906025886535645, 0.8454219102859497, 0.7716134190559387], [-0.6928417682647705, -0.1616809368133545, 0.5617814660072327, -2.0132737159729004, -0.06250842660665512, -0.6956769227981567, -0.5728086233139038, 0.5807580351829529], [0.0922982469201088, -1.458032250404358, 0.4933658838272095, -2.2922613620758057, -1.0174503326416016, -0.786098301410675, 0.5666990876197815, 0.6574922204017639], [0.19112013280391693, -0.9648575186729431, 0.19928182661533356, -2.8733279705047607, -0.24614526331424713, 0.4084373414516449, 0.45962023735046387, -0.6802054047584534], [0.7269975543022156, -1.8107868432998657, -1.543519377708435, -1.3436188697814941, 0.8739405274391174, -0.3134652376174927, -0.27866682410240173, 1.1063045263290405], [0.20045965909957886, -0.5212864875793457, -0.5739890933036804, 0.0847589448094368, -0.9136117100715637, -0.1454971730709076, 0.6746436357498169, 0.025942014530301094], [-0.2226259559392929, -2.11847186088562, 0.636896550655365, -0.07222524285316467, -0.12760376930236816, -0.6172599196434021, -0.08774348348379135, 0.26979073882102966], [0.06948059052228928, -1.658104419708252, -0.2165050059556961, -0.03615185245871544, 0.3726387619972229, 0.521864116191864, -0.6264028549194336, -0.9169233441352844], [-2.9898157119750977, -0.015271423384547234, -2.1350061893463135, -1.9420790672302246, 0.10983480513095856, 0.42313456535339355, 0.55278080701828, 0.4176137447357178], [-2.2577743530273438, 0.1375923454761505, -0.1850747913122177, -1.8980659246444702, 0.4380287826061249, 0.41227811574935913, -2.157207489013672, -0.4510977566242218], [-0.10430847853422165, -0.49469026923179626, 0.3324641287326813, 0.5282496213912964, -0.13607962429523468, -0.5135273337364197, -0.9404693841934204, -0.2586439549922943], [-1.9806066751480103, 0.8058302998542786, -1.6640456914901733, 0.08127395808696747, -0.5106475353240967, 0.542993426322937, -1.5700808763504028, -2.1023802757263184], [-2.042649745941162, 0.24940557777881622, -0.05053121969103813, -1.774614691734314, -1.7825162410736084, 0.22655156254768372, 0.5531492233276367, -0.03390664979815483], [-0.9677702188491821, -0.08605609834194183, 0.4472239911556244, 0.28308624029159546, -1.6445075273513794, -1.412929892539978, 0.6242470145225525, 0.034140292555093765]], "l3.bias": [-0.06661687791347504, 0.19848594069480896, 0.02286260388791561, -0.09701436758041382, -0.03846859186887741, 0.4463633894920349, 0.5366491675376892, 0.3277019262313843, 0.029123416170477867, 0.09753113240003586, 0.5207009315490723, -0.2866317927837372, 0.0222614798694849, 0.024107463657855988, 0.31362396478652954, -0.07798787951469421, -0.43650272488594055, 0.2558029890060425, -0.28527453541755676, -0.1363774687051773]}